well 0.27691 0.28745 -0.29935 -0.19964 0.12956 0.15555 -0.64522 -0.3409 -0.11833 0.15798 0.13969 0.24872 -0.15901 -0.033439 0.11895 0.076535 0.45263 0.26494 -0.19157 -0.56768 0.029286 0.21745 0.43406 0.14981 0.075774 -1.4453 -0.58394 -0.046063 0.066214 -0.26417 3.965 0.25196 0.24855 -0.50524 0.25806 0.28683 -0.17994 0.62885 -0.1204 -0.042143 -0.044911 0.18561 0.16266 -0.0026127 0.13083 0.20179 -0.29667 -0.09482 -0.2125 0.022074
done 0.33076 -0.4387 -0.32163 -0.4931 0.10254 -0.0027421 -0.5172 0.024336 -0.12816 0.14349 -0.16691 0.56121 -0.56241 -0.040972 0.75 0.23084 0.53204 -0.040973 0.26892 -0.69238 0.27883 0.37911 0.5639 -0.3815 0.72132 -1.3562 -0.81717 -0.054842 0.57333 -0.85489 3.1889 0.19918 -0.4212 -0.90427 -0.19521 0.30111 0.46756 0.8213 0.060552 -0.16143 -0.26668 -0.1766 0.01582 0.25528 -0.096739 -0.097282 -0.084483 0.33312 -0.22252 0.74457
good -0.35586 0.5213 -0.6107 -0.30131 0.94862 -0.31539 -0.59831 0.12188 -0.031943 0.55695 -0.10621 0.63399 -0.4734 -0.075895 0.38247 0.081569 0.82214 0.2222 -0.0083764 -0.7662 -0.56253 0.61759 0.20292 -0.048598 0.87815 -1.6549 -0.77418 0.15435 0.94823 -0.3952 3.7302 0.82855 -0.14104 0.016395 0.21115 -0.036085 -0.15587 0.86583 0.26309 -0.71015 -0.03677 0.0018282 -0.17704 0.27032 0.11026 0.14133 -0.057322 0.27207 0.31305 0.92771
work 0.51359 0.19695 -0.51944 -0.86218 0.015494 0.10973 -0.80293 -0.33361 -0.00016119 0.010189 0.046734 0.46751 -0.47475 0.11038 0.39327 -0.43652 0.39984 0.27109 0.4265 -0.6064 0.81145 0.4563 -0.12726 -0.22474 0.64071 -1.2767 -0.72231 -0.6959 0.028045 -0.23072 3.7996 -0.12625 -0.47967 -0.99972 -0.21976 0.50565 0.025953 0.80514 0.19929 0.28796 -0.15915 -0.30438 0.16025 -0.1829 -0.038563 -0.17619 0.027041 0.046842 -0.62897 0.35726
great -0.026567 1.3357 -1.028 -0.3729 0.52012 -0.12699 -0.35433 0.37824 -0.29716 0.093894 -0.034122 0.92961 -0.14023 -0.63299 0.020801 -0.21533 0.96923 0.47654 -1.0039 -0.24013 -0.36325 -0.004757 -0.5148 -0.4626 1.2447 -1.8316 -1.5581 -0.37465 0.53362 0.20883 3.2209 0.64549 0.37438 -0.17657 -0.024164 0.33786 -0.419 0.40081 -0.11449 0.051232 -0.15205 0.29855 -0.44052 0.11089 -0.24633 0.66251 -0.26949 -0.49658 -0.41618 -0.2549
effort 0.70902 -0.60861 0.26447 -0.54556 -0.080056 0.15464 -0.53953 0.31852 0.74595 0.45002 -0.67944 -0.093416 -0.62557 0.16601 -0.34859 -0.53711 1.0038 -0.54608 0.14791 -0.37893 0.32426 0.047782 -0.71429 -1.0033 0.20843 -1.7756 0.12468 -0.61561 0.49403 -0.068333 3.1969 0.50705 -1.0984 -0.66999 -0.42717 0.33314 -0.5241 0.20927 -0.26731 -0.90293 -0.47239 -0.21518 -0.16108 -0.56691 -0.01505 -0.028093 0.19612 0.62921 -0.23875 0.1726
nice 0.20189 0.80606 -1.1281 -0.59593 0.52756 -0.4769 -0.5264 0.14526 -0.86087 0.56199 -0.43708 -0.16586 -0.23328 -0.21726 0.52114 0.062307 0.55115 -0.18002 -0.32983 -0.94434 -0.62019 0.78764 -0.36133 0.6858 0.3791 -0.87744 -0.76792 1.2885 1.142 -0.73489 2.3932 1.0967 -0.48686 0.5284 0.3927 -0.056427 0.29632 1.0798 0.45157 -0.98115 1.0037 0.15634 0.022584 -0.14832 -0.092933 0.33691 0.42171 -0.21642 1.0139 1.0535
excellent -0.40431 0.78002 -0.67538 -0.097149 0.54242 -0.51283 -0.47758 -0.11429 0.55194 0.4953 0.25681 0.41516 0.38223 0.033936 -0.51981 -0.5752 0.50975 0.44029 -0.16885 -0.75687 -0.36747 0.37269 -0.0867 -0.31057 0.7034 -0.46849 -0.47845 0.15794 0.23969 0.16104 2.7632 0.33381 0.47953 -0.3731 0.71095 0.6879 0.067399 1.4177 -0.3563 -0.48159 0.53281 -0.074593 0.016028 0.023371 -0.02953 -0.12463 0.12501 0.72255 0.4759 0.79514
weak -0.26241 -1.1103 0.50271 -0.43052 0.37468 -0.3055 0.36708 0.25938 -0.16993 0.54245 0.63919 0.11347 -0.3919 0.31521 -0.42901 0.49977 -0.2376 -0.79307 0.34494 -0.47877 -0.51945 -0.50665 0.057701 -0.31797 -0.080134 -1.0289 -0.1507 0.50944 0.60715 1.3049 3.2575 0.11849 1.5057 -0.36649 -0.17726 -0.20931 -0.59527 -0.025889 -0.2965 -1.1387 -0.52999 0.067286 0.094954 0.049722 0.51323 -0.11194 -0.007111 0.23775 0.68874 0.13873
poor -0.53819 -0.40788 -0.1963 -0.80821 0.077145 0.025785 -0.50482 -0.068887 0.13628 0.28619 0.08215 -0.26886 0.3935 -0.94845 0.21612 -0.19433 0.17588 -0.28373 0.53496 -0.26135 -0.54512 0.49143 -0.32752 -0.040662 0.41689 -1.0261 -0.056752 -0.43134 0.50692 0.69811 3.5451 0.79069 0.75455 -0.42825 0.075692 0.35466 -0.38997 -0.021445 0.55851 -0.56601 -0.79644 0.038788 0.79469 0.32506 0.20975 0.20248 -0.63181 0.05218 1.0731 0.035629
not 0.55025 -0.24942 -0.0009386 -0.264 0.5932 0.2795 -0.25666 0.093076 -0.36288 0.090776 0.28409 0.71337 -0.4751 -0.24413 0.88424 0.89109 0.43009 -0.2733 0.11276 -0.81665 -0.41272 0.17754 0.61942 0.10466 0.33327 -2.3125 -0.52371 -0.021898 0.53801 -0.50615 3.8683 0.16642 -0.71981 -0.74728 0.11631 -0.37585 0.5552 0.12675 -0.22642 -0.10175 -0.35455 0.12348 0.16532 0.7042 -0.080231 -0.068406 -0.67626 0.33763 0.050139 0.33465
could 0.90754 -0.38322 0.67648 -0.20222 0.15156 0.13627 -0.48813 0.48223 -0.095715 0.18306 0.27007 0.41415 -0.48933 -0.0076005 0.79662 1.0989 0.53802 -0.54468 -0.16063 -0.98348 -0.19188 -0.2144 0.19959 -0.31341 0.24101 -2.2662 -0.25926 -0.10898 0.66177 -0.48104 3.6298 0.45397 -0.64484 -0.52244 0.042922 -0.16605 0.097102 0.044836 0.20389 -0.46322 -0.46434 0.32394 0.25984 0.40849 0.20351 0.058722 -0.16408 0.20672 -0.1844 0.071147
have 0.94911 -0.34968 0.48125 -0.19306 -0.0088384 0.28182 -0.9613 -0.13581 -0.43083 -0.092933 0.15689 0.059585 -0.49635 -0.17414 0.75661 0.4921 0.21773 -0.22778 -0.13686 -0.90589 -0.48781 0.19919 0.91447 -0.16203 -0.20645 -1.7312 -0.47622 -0.04854 -0.14027 -0.45828 4.0326 0.6052 0.10448 -0.7361 0.2485 -0.033461 -0.13395 0.052782 -0.27268 0.079825 -0.80127 0.30831 0.43567 0.88747 0.29816 -0.02465 -0.95075 0.36233 -0.72512 -0.6089
better -0.1209 -0.16821 0.24099 -0.30287 0.43578 -0.38367 -0.55203 -0.28681 -0.10092 0.47769 0.28969 0.29549 -0.44074 -0.13494 0.26022 0.45371 0.53749 0.06122 0.24366 -0.87761 -0.56241 0.24927 0.17941 -0.016943 0.57974 -1.3546 -0.53161 -0.26451 0.68211 -0.30482 3.7943 0.96326 -0.073896 -0.41032 0.24478 -0.14579 -0.086789 0.995 0.049928 -0.60302 -0.36585 -0.10114 0.40423 0.25951 0.087927 0.06196 0.075266 0.12755 0.066461 1.1163